8 100
the 0.002802 -0.003516 -0.008807 -0.001002 0.001376 -0.001423 -0.009984 0.002052 0.009956 -0.008802 0.006950 0.003882 0.002656 -0.005925 -0.004875 0.004443 -0.005841 0.005546 0.006542 -0.005412 -0.005040 0.002456 0.008316 -0.005635 -0.007881 -0.008614 -0.006724 -0.005940 0.003385 -0.009846 0.006497 0.000568 -0.005723 0.005014 -0.008357 0.006124 -0.006792 0.001413 -0.002272 -0.005789 0.007285 0.003588 -0.001412 -0.008976 0.007068 -0.001354 -0.003082 -0.006476 0.003834 -0.009074 -0.004495 -0.007763 0.009563 0.009441 -0.001435 0.007287 -0.000469 0.000179 0.008628 -0.009947 0.006244 0.002957 -0.001044 -0.004545 -0.006593 0.000353 0.003830 -0.001867 0.007657 0.007386 0.008376 -0.007468 0.003118 -0.004525 0.001372 -0.001019 -0.002359 -0.002316 0.009239 0.005918 0.004670 -0.007767 0.007752 0.003548 -0.009644 0.009961 0.000130 0.007894 -0.002249 -0.004303 0.000061 -0.009286 0.000342 0.007019 0.004668 0.006422 0.007102 -0.005399 0.000924 -0.007932 
brown 0.008303 0.004183 0.007846 -0.002979 0.000043 0.009026 0.007074 0.008502 0.001609 -0.006609 0.009732 0.003282 -0.009511 -0.001540 0.001814 0.007866 -0.007765 -0.004829 -0.007403 0.000746 0.004980 0.002519 -0.002800 0.001414 0.004457 -0.005054 0.008773 -0.007270 0.002388 0.004601 -0.005715 0.007825 -0.003211 -0.009796 -0.003837 0.002198 -0.004925 0.000049 0.004722 0.000850 0.009870 0.007041 -0.008223 0.003397 -0.000098 0.003296 -0.006607 -0.006563 0.006938 0.002259 0.004644 -0.000390 0.003874 0.007135 0.003581 0.008097 -0.003931 0.007070 0.007484 -0.004453 0.007727 0.005379 0.001321 0.006913 -0.000053 -0.000256 -0.005113 0.007983 -0.005258 -0.000094 0.008273 -0.003645 0.004090 -0.003276 0.004939 -0.006014 -0.002940 -0.007139 -0.001302 -0.004973 -0.009690 -0.006704 0.003637 -0.001424 0.007369 -0.008764 -0.009534 -0.001673 -0.007301 -0.005018 -0.004174 -0.001748 -0.001095 -0.005971 0.000478 0.003347 0.003825 0.009402 0.002261 0.003105 
quick 0.007619 0.002831 0.009441 -0.003554 0.006453 -0.002917 0.001559 0.002329 -0.001910 0.003255 0.004529 -0.005762 -0.002360 0.009538 -0.009057 -0.001467 -0.000683 0.006725 -0.000662 0.006060 0.003018 -0.006494 0.004226 -0.004019 -0.007946 -0.009951 -0.003373 -0.007945 0.000088 0.006948 -0.003069 -0.004576 0.004823 0.006536 -0.006877 -0.003870 0.002435 -0.005504 -0.001751 0.008150 -0.002785 -0.003977 0.002329 0.009534 0.007092 -0.002384 0.007492 -0.003112 0.005310 0.002259 -0.002248 0.003365 -0.001167 -0.003572 -0.007178 0.005590 0.008423 -0.008283 0.006263 0.005815 -0.007512 0.008480 0.009649 -0.003903 -0.008687 -0.002934 0.002964 0.001403 -0.004849 -0.002959 0.006209 0.007090 0.009398 0.009327 0.000726 -0.001011 -0.009758 -0.009199 -0.006809 0.002373 -0.008446 -0.009044 0.003369 0.002909 0.006539 -0.002180 0.003385 -0.006946 -0.008893 0.009308 -0.001217 -0.004057 0.003580 0.006932 0.009995 -0.000618 -0.006522 -0.008863 0.006846 0.004136 
dog 0.005850 0.006277 0.000191 0.009878 -0.008188 0.004480 -0.005024 0.005505 0.002968 0.001660 -0.004654 0.004961 -0.007360 -0.000110 -0.005106 -0.003286 -0.003001 -0.008204 -0.005518 0.008821 -0.009975 0.005393 -0.008419 -0.007936 0.009699 0.003955 0.008569 0.009170 0.000007 -0.002828 0.001426 0.002656 0.006044 0.003794 0.005256 -0.004069 0.000592 0.002749 0.007871 0.003376 -0.000624 -0.001748 0.001462 -0.000286 -0.009502 0.006189 -0.009522 -0.002002 0.008863 -0.000321 0.002280 0.001338 -0.004466 0.009393 -0.003171 0.008272 -0.005787 -0.002303 -0.000581 -0.003002 0.008594 0.003012 -0.004276 0.001207 -0.006204 -0.003565 -0.006590 -0.005820 -0.007613 -0.005590 0.006299 0.006867 0.003456 0.008903 -0.008244 0.001426 -0.005674 -0.004936 0.008792 -0.007267 0.003540 -0.005063 0.001546 -0.005645 0.000951 -0.001705 -0.009956 -0.002481 -0.004418 -0.006668 -0.004286 0.002763 0.005470 -0.003773 -0.001975 -0.008252 -0.001004 -0.005493 0.002667 -0.006765 
jumps 0.001064 -0.002635 -0.006807 0.006858 0.002092 0.006845 0.000675 0.000128 -0.001803 -0.001098 -0.003376 -0.006883 -0.004169 0.002549 -0.005883 -0.001806 0.001092 0.001155 -0.009529 -0.001732 0.001208 -0.001071 -0.006166 0.005392 -0.008928 0.002058 0.009781 0.001183 -0.000160 -0.002612 0.002258 -0.003914 -0.007081 -0.003512 -0.002245 -0.009429 -0.007679 0.000786 -0.004069 -0.001572 -0.004463 -0.005670 -0.004881 0.000000 0.007745 0.008515 -0.008846 -0.005308 -0.001918 -0.005093 -0.003055 -0.008897 -0.004919 0.008267 -0.005091 -0.009449 -0.000044 -0.009275 -0.009649 0.000401 0.002741 -0.006406 -0.000124 -0.008206 0.009562 -0.000647 0.008627 -0.006911 -0.001001 0.006707 0.001573 -0.000746 0.004442 -0.006444 -0.004207 -0.002550 -0.003234 -0.006054 -0.002286 0.007807 -0.009842 -0.003457 -0.002293 0.009621 0.006662 0.006081 -0.007412 0.008723 0.003328 -0.007098 -0.003830 0.002980 -0.005008 -0.008914 0.009277 0.000934 -0.004539 0.005202 0.008965 -0.001114 
lazy -0.004417 0.002632 0.000101 -0.009500 0.005109 0.005135 -0.001059 -0.006632 -0.007827 -0.007150 -0.007736 -0.009906 -0.008473 -0.007883 0.001691 -0.002831 0.004638 0.004076 0.002245 0.008447 -0.007854 0.001466 -0.001645 -0.002986 0.008572 0.002801 0.003941 -0.008743 -0.005435 -0.008676 0.007210 0.000011 -0.000484 -0.002253 -0.007014 0.000609 -0.004127 0.004922 -0.000941 0.007669 0.007442 -0.002829 0.008799 0.008484 0.001697 -0.004593 0.005131 -0.003057 -0.005661 0.003173 -0.004429 -0.003013 -0.001046 -0.004056 0.007623 0.003502 0.003062 0.004855 -0.005316 -0.000891 0.009519 -0.007736 -0.005415 -0.006389 0.008324 -0.009086 0.007858 0.008044 -0.004872 0.005680 0.001980 -0.009970 0.002180 0.003448 -0.003942 -0.002332 0.005187 -0.000190 -0.008313 -0.001091 -0.004946 0.002174 -0.006792 0.002040 0.003969 0.007599 -0.006147 0.003701 0.000095 -0.008951 -0.003381 0.001251 0.004040 0.005044 -0.006407 -0.007384 0.008150 0.006854 0.001846 -0.009964 
fox 0.007681 0.005152 0.003126 -0.008784 -0.008988 0.009363 -0.007820 -0.005354 -0.001715 -0.002951 -0.007881 -0.009261 -0.001138 0.000757 -0.004176 -0.009111 -0.007550 -0.004956 -0.009576 0.002771 -0.004558 -0.006982 -0.005599 -0.004378 0.008331 0.002092 0.007917 0.008266 -0.002658 0.009844 0.001925 0.002566 -0.003291 0.004535 -0.002604 0.005831 0.007405 0.003100 0.003029 0.004208 -0.006149 -0.005863 -0.000895 -0.006064 0.009203 -0.002193 0.006265 -0.004399 -0.009776 -0.007611 0.003376 0.005615 -0.009879 -0.007656 -0.002363 -0.002054 0.001664 -0.002183 -0.000707 -0.002939 -0.002115 -0.006803 -0.003384 -0.007839 0.001017 0.004143 -0.007050 -0.001205 -0.002939 0.007765 0.002252 -0.002935 0.009628 -0.003285 -0.000399 0.006742 -0.005838 -0.004381 -0.009790 -0.007754 0.005737 -0.004532 -0.002301 0.004495 0.005451 -0.001838 0.008685 0.000689 0.002996 0.003106 0.003676 0.003324 -0.002997 0.004172 0.009209 -0.001379 0.008598 -0.002739 -0.009129 0.006717 
over 0.008555 0.002486 0.008545 -0.003285 0.001551 0.000036 -0.007487 0.006369 -0.003295 -0.004697 0.002360 0.000324 0.008132 0.009413 0.000243 0.006906 -0.001836 -0.008143 -0.009051 0.004692 -0.003319 -0.003912 -0.006094 0.001943 0.005773 0.003517 0.000124 0.000048 0.006122 -0.002661 -0.009753 -0.009438 -0.009853 -0.008164 0.005835 -0.007429 0.005144 -0.004205 0.009097 -0.003085 -0.008190 -0.003107 0.003156 0.005426 -0.005108 -0.006375 0.009048 0.008821 -0.003645 0.001225 0.003690 0.008450 0.000860 -0.001750 -0.008573 -0.001037 0.006225 0.007953 -0.005184 -0.005950 -0.009192 0.002059 0.009110 0.006115 -0.002770 0.000391 -0.009930 0.007316 -0.007229 0.002817 -0.003600 0.005715 0.004776 -0.004676 -0.003760 -0.007149 0.008033 0.002699 0.006204 0.001748 0.006583 0.008876 -0.007752 -0.004341 0.009613 0.004363 0.008530 -0.007542 0.009664 0.004321 -0.006361 -0.006664 -0.002505 0.002905 0.003309 -0.009897 -0.008579 0.007432 -0.003835 0.009553 
